digraph Tree {
node [shape=box, style="filled, rounded", color="black", fontname=helvetica] ;
edge [fontname=helvetica] ;
0 [label=<eta &le; 39.5<br/>gini = 0.32<br/>samples = 180<br/>value = [144, 36]<br/>class = 0>, fillcolor="#eca06a"] ;
1 [label=<ADC &le; 1.806<br/>gini = 0.408<br/>samples = 21<br/>value = [6, 15]<br/>class = 1>, fillcolor="#88c4ef"] ;
0 -> 1 [labeldistance=2.5, labelangle=45, headlabel="True"] ;
2 [label=<TIC type_A &le; 0.5<br/>gini = 0.278<br/>samples = 18<br/>value = [3, 15]<br/>class = 1>, fillcolor="#61b1ea"] ;
1 -> 2 ;
3 [label=<ADC &le; 0.565<br/>gini = 0.153<br/>samples = 12<br/>value = [1, 11]<br/>class = 1>, fillcolor="#4ba6e7"] ;
2 -> 3 ;
4 [label=<gini = 0.5<br/>samples = 2<br/>value = [1, 1]<br/>class = 0>, fillcolor="#ffffff"] ;
3 -> 4 ;
5 [label=<gini = 0.0<br/>samples = 10<br/>value = [0, 10]<br/>class = 1>, fillcolor="#399de5"] ;
3 -> 5 ;
6 [label=<eta &le; 30.5<br/>gini = 0.444<br/>samples = 6<br/>value = [2, 4]<br/>class = 1>, fillcolor="#9ccef2"] ;
2 -> 6 ;
7 [label=<gini = 0.0<br/>samples = 3<br/>value = [0, 3]<br/>class = 1>, fillcolor="#399de5"] ;
6 -> 7 ;
8 [label=<gini = 0.444<br/>samples = 3<br/>value = [2, 1]<br/>class = 0>, fillcolor="#f2c09c"] ;
6 -> 8 ;
9 [label=<gini = 0.0<br/>samples = 3<br/>value = [3, 0]<br/>class = 0>, fillcolor="#e58139"] ;
1 -> 9 ;
10 [label=<T2 &le; 0.5<br/>gini = 0.229<br/>samples = 159<br/>value = [138, 21]<br/>class = 0>, fillcolor="#e99457"] ;
0 -> 10 [labeldistance=2.5, labelangle=-45, headlabel="False"] ;
11 [label=<eta &le; 64.5<br/>gini = 0.174<br/>samples = 114<br/>value = [103, 11]<br/>class = 0>, fillcolor="#e88e4e"] ;
10 -> 11 ;
12 [label=<eta &le; 55.5<br/>gini = 0.129<br/>samples = 101<br/>value = [94, 7]<br/>class = 0>, fillcolor="#e78a48"] ;
11 -> 12 ;
13 [label=<eta &le; 53.5<br/>gini = 0.219<br/>samples = 48<br/>value = [42, 6]<br/>class = 0>, fillcolor="#e99355"] ;
12 -> 13 ;
14 [label=<ADC &le; 1.469<br/>gini = 0.111<br/>samples = 34<br/>value = [32, 2]<br/>class = 0>, fillcolor="#e78945"] ;
13 -> 14 ;
15 [label=<gini = 0.278<br/>samples = 6<br/>value = [5, 1]<br/>class = 0>, fillcolor="#ea9a61"] ;
14 -> 15 ;
16 [label=<gini = 0.069<br/>samples = 28<br/>value = [27, 1]<br/>class = 0>, fillcolor="#e68640"] ;
14 -> 16 ;
17 [label=<TIC type_A &le; 0.5<br/>gini = 0.408<br/>samples = 14<br/>value = [10, 4]<br/>class = 0>, fillcolor="#efb388"] ;
13 -> 17 ;
18 [label=<gini = 0.0<br/>samples = 7<br/>value = [7, 0]<br/>class = 0>, fillcolor="#e58139"] ;
17 -> 18 ;
19 [label=<gini = 0.49<br/>samples = 7<br/>value = [3, 4]<br/>class = 1>, fillcolor="#cee6f8"] ;
17 -> 19 ;
20 [label=<eta &le; 63.5<br/>gini = 0.037<br/>samples = 53<br/>value = [52, 1]<br/>class = 0>, fillcolor="#e6833d"] ;
12 -> 20 ;
21 [label=<gini = 0.0<br/>samples = 45<br/>value = [45, 0]<br/>class = 0>, fillcolor="#e58139"] ;
20 -> 21 ;
22 [label=<ADC &le; 1.216<br/>gini = 0.219<br/>samples = 8<br/>value = [7, 1]<br/>class = 0>, fillcolor="#e99355"] ;
20 -> 22 ;
23 [label=<gini = 0.0<br/>samples = 6<br/>value = [6, 0]<br/>class = 0>, fillcolor="#e58139"] ;
22 -> 23 ;
24 [label=<gini = 0.5<br/>samples = 2<br/>value = [1, 1]<br/>class = 0>, fillcolor="#ffffff"] ;
22 -> 24 ;
25 [label=<ADC &le; 1.25<br/>gini = 0.426<br/>samples = 13<br/>value = [9, 4]<br/>class = 0>, fillcolor="#f1b991"] ;
11 -> 25 ;
26 [label=<gini = 0.0<br/>samples = 9<br/>value = [9, 0]<br/>class = 0>, fillcolor="#e58139"] ;
25 -> 26 ;
27 [label=<gini = 0.0<br/>samples = 4<br/>value = [0, 4]<br/>class = 1>, fillcolor="#399de5"] ;
25 -> 27 ;
28 [label=<eta &le; 64.0<br/>gini = 0.346<br/>samples = 45<br/>value = [35, 10]<br/>class = 0>, fillcolor="#eca572"] ;
10 -> 28 ;
29 [label=<eta &le; 54.0<br/>gini = 0.454<br/>samples = 23<br/>value = [15, 8]<br/>class = 0>, fillcolor="#f3c4a3"] ;
28 -> 29 ;
30 [label=<TIC type_C &le; 0.5<br/>gini = 0.153<br/>samples = 12<br/>value = [11, 1]<br/>class = 0>, fillcolor="#e78c4b"] ;
29 -> 30 ;
31 [label=<gini = 0.0<br/>samples = 10<br/>value = [10, 0]<br/>class = 0>, fillcolor="#e58139"] ;
30 -> 31 ;
32 [label=<gini = 0.5<br/>samples = 2<br/>value = [1, 1]<br/>class = 0>, fillcolor="#ffffff"] ;
30 -> 32 ;
33 [label=<ADC &le; 1.25<br/>gini = 0.463<br/>samples = 11<br/>value = [4, 7]<br/>class = 1>, fillcolor="#aad5f4"] ;
29 -> 33 ;
34 [label=<ADC &le; 0.825<br/>gini = 0.346<br/>samples = 9<br/>value = [2, 7]<br/>class = 1>, fillcolor="#72b9ec"] ;
33 -> 34 ;
35 [label=<gini = 0.5<br/>samples = 4<br/>value = [2, 2]<br/>class = 0>, fillcolor="#ffffff"] ;
34 -> 35 ;
36 [label=<gini = 0.0<br/>samples = 5<br/>value = [0, 5]<br/>class = 1>, fillcolor="#399de5"] ;
34 -> 36 ;
37 [label=<gini = 0.0<br/>samples = 2<br/>value = [2, 0]<br/>class = 0>, fillcolor="#e58139"] ;
33 -> 37 ;
38 [label=<ADC &le; 0.925<br/>gini = 0.165<br/>samples = 22<br/>value = [20, 2]<br/>class = 0>, fillcolor="#e88e4d"] ;
28 -> 38 ;
39 [label=<ADC &le; 0.727<br/>gini = 0.095<br/>samples = 20<br/>value = [19, 1]<br/>class = 0>, fillcolor="#e68843"] ;
38 -> 39 ;
40 [label=<TIC type_B &le; 0.5<br/>gini = 0.375<br/>samples = 4<br/>value = [3, 1]<br/>class = 0>, fillcolor="#eeab7b"] ;
39 -> 40 ;
41 [label=<gini = 0.0<br/>samples = 2<br/>value = [2, 0]<br/>class = 0>, fillcolor="#e58139"] ;
40 -> 41 ;
42 [label=<gini = 0.5<br/>samples = 2<br/>value = [1, 1]<br/>class = 0>, fillcolor="#ffffff"] ;
40 -> 42 ;
43 [label=<gini = 0.0<br/>samples = 16<br/>value = [16, 0]<br/>class = 0>, fillcolor="#e58139"] ;
39 -> 43 ;
44 [label=<gini = 0.5<br/>samples = 2<br/>value = [1, 1]<br/>class = 0>, fillcolor="#ffffff"] ;
38 -> 44 ;
}
