digraph Tree {
node [shape=box, style="filled, rounded", color="black", fontname=helvetica] ;
edge [fontname=helvetica] ;
0 [label=<ADC &le; 1.526<br/>gini = 0.32<br/>samples = 180<br/>value = [144, 36]<br/>class = 0>, fillcolor="#eca06a"] ;
1 [label=<eta &le; 41.5<br/>gini = 0.434<br/>samples = 91<br/>value = [62, 29]<br/>class = 0>, fillcolor="#f1bc96"] ;
0 -> 1 [labeldistance=2.5, labelangle=45, headlabel="True"] ;
2 [label=<T2 &le; 0.5<br/>gini = 0.397<br/>samples = 11<br/>value = [3, 8]<br/>class = 1>, fillcolor="#83c2ef"] ;
1 -> 2 ;
3 [label=<gini = 0.0<br/>samples = 7<br/>value = [0, 7]<br/>class = 1>, fillcolor="#399de5"] ;
2 -> 3 ;
4 [label=<gini = 0.375<br/>samples = 4<br/>value = [3, 1]<br/>class = 0>, fillcolor="#eeab7b"] ;
2 -> 4 ;
5 [label=<eta &le; 53.5<br/>gini = 0.387<br/>samples = 80<br/>value = [59, 21]<br/>class = 0>, fillcolor="#eeae7f"] ;
1 -> 5 ;
6 [label=<gini = 0.0<br/>samples = 13<br/>value = [13, 0]<br/>class = 0>, fillcolor="#e58139"] ;
5 -> 6 ;
7 [label=<ADC &le; 1.495<br/>gini = 0.43<br/>samples = 67<br/>value = [46, 21]<br/>class = 0>, fillcolor="#f1bb93"] ;
5 -> 7 ;
8 [label=<gini = 0.404<br/>samples = 64<br/>value = [46, 18]<br/>class = 0>, fillcolor="#efb286"] ;
7 -> 8 ;
9 [label=<gini = 0.0<br/>samples = 3<br/>value = [0, 3]<br/>class = 1>, fillcolor="#399de5"] ;
7 -> 9 ;
10 [label=<eta &le; 54.5<br/>gini = 0.145<br/>samples = 89<br/>value = [82, 7]<br/>class = 0>, fillcolor="#e78c4a"] ;
0 -> 10 [labeldistance=2.5, labelangle=-45, headlabel="False"] ;
11 [label=<ADC &le; 1.904<br/>gini = 0.226<br/>samples = 54<br/>value = [47, 7]<br/>class = 0>, fillcolor="#e99456"] ;
10 -> 11 ;
12 [label=<eta &le; 52.0<br/>gini = 0.346<br/>samples = 27<br/>value = [21, 6]<br/>class = 0>, fillcolor="#eca572"] ;
11 -> 12 ;
13 [label=<gini = 0.236<br/>samples = 22<br/>value = [19, 3]<br/>class = 0>, fillcolor="#e99558"] ;
12 -> 13 ;
14 [label=<gini = 0.48<br/>samples = 5<br/>value = [2, 3]<br/>class = 1>, fillcolor="#bddef6"] ;
12 -> 14 ;
15 [label=<eta &le; 49.5<br/>gini = 0.071<br/>samples = 27<br/>value = [26, 1]<br/>class = 0>, fillcolor="#e68641"] ;
11 -> 15 ;
16 [label=<gini = 0.219<br/>samples = 8<br/>value = [7, 1]<br/>class = 0>, fillcolor="#e99355"] ;
15 -> 16 ;
17 [label=<gini = 0.0<br/>samples = 19<br/>value = [19, 0]<br/>class = 0>, fillcolor="#e58139"] ;
15 -> 17 ;
18 [label=<gini = 0.0<br/>samples = 35<br/>value = [35, 0]<br/>class = 0>, fillcolor="#e58139"] ;
10 -> 18 ;
}
