digraph Tree {
node [shape=box, style="filled, rounded", color="black", fontname=helvetica] ;
edge [fontname=helvetica] ;
0 [label=<eta &le; 49.5<br/>entropy = 0.722<br/>samples = 180<br/>value = [144, 36]<br/>class = 0>, fillcolor="#eca06a"] ;
1 [label=<ADC &le; 2.05<br/>entropy = 0.994<br/>samples = 44<br/>value = [24, 20]<br/>class = 0>, fillcolor="#fbeade"] ;
0 -> 1 [labeldistance=2.5, labelangle=45, headlabel="True"] ;
2 [label=<eta &le; 33.5<br/>entropy = 1.0<br/>samples = 39<br/>value = [19, 20]<br/>class = 1>, fillcolor="#f5fafe"] ;
1 -> 2 ;
3 [label=<ADC &le; 1.244<br/>entropy = 0.845<br/>samples = 11<br/>value = [8, 3]<br/>class = 0>, fillcolor="#efb083"] ;
2 -> 3 ;
4 [label=<entropy = 0.0<br/>samples = 2<br/>value = [0, 2]<br/>class = 1>, fillcolor="#399de5"] ;
3 -> 4 ;
5 [label=<ADC &le; 1.783<br/>entropy = 0.503<br/>samples = 9<br/>value = [8, 1]<br/>class = 0>, fillcolor="#e89152"] ;
3 -> 5 ;
6 [label=<entropy = 0.0<br/>samples = 7<br/>value = [7, 0]<br/>class = 0>, fillcolor="#e58139"] ;
5 -> 6 ;
7 [label=<entropy = 1.0<br/>samples = 2<br/>value = [1, 1]<br/>class = 0>, fillcolor="#ffffff"] ;
5 -> 7 ;
8 [label=<eta &le; 34.5<br/>entropy = 0.967<br/>samples = 28<br/>value = [11, 17]<br/>class = 1>, fillcolor="#b9dcf6"] ;
2 -> 8 ;
9 [label=<entropy = 0.0<br/>samples = 5<br/>value = [0, 5]<br/>class = 1>, fillcolor="#399de5"] ;
8 -> 9 ;
10 [label=<TIC type_B &le; 0.5<br/>entropy = 0.999<br/>samples = 23<br/>value = [11, 12]<br/>class = 1>, fillcolor="#eff7fd"] ;
8 -> 10 ;
11 [label=<eta &le; 35.5<br/>entropy = 0.985<br/>samples = 21<br/>value = [9, 12]<br/>class = 1>, fillcolor="#cee6f8"] ;
10 -> 11 ;
12 [label=<entropy = 0.0<br/>samples = 2<br/>value = [0, 2]<br/>class = 1>, fillcolor="#399de5"] ;
11 -> 12 ;
13 [label=<ADC &le; 1.125<br/>entropy = 0.998<br/>samples = 19<br/>value = [9, 10]<br/>class = 1>, fillcolor="#ebf5fc"] ;
11 -> 13 ;
14 [label=<entropy = 0.0<br/>samples = 2<br/>value = [2, 0]<br/>class = 0>, fillcolor="#e58139"] ;
13 -> 14 ;
15 [label=<ADC &le; 1.47<br/>entropy = 0.977<br/>samples = 17<br/>value = [7, 10]<br/>class = 1>, fillcolor="#c4e2f7"] ;
13 -> 15 ;
16 [label=<entropy = 0.592<br/>samples = 7<br/>value = [1, 6]<br/>class = 1>, fillcolor="#5aade9"] ;
15 -> 16 ;
17 [label=<entropy = 0.971<br/>samples = 10<br/>value = [6, 4]<br/>class = 0>, fillcolor="#f6d5bd"] ;
15 -> 17 ;
18 [label=<entropy = 0.0<br/>samples = 2<br/>value = [2, 0]<br/>class = 0>, fillcolor="#e58139"] ;
10 -> 18 ;
19 [label=<entropy = 0.0<br/>samples = 5<br/>value = [5, 0]<br/>class = 0>, fillcolor="#e58139"] ;
1 -> 19 ;
20 [label=<eta &le; 64.5<br/>entropy = 0.523<br/>samples = 136<br/>value = [120, 16]<br/>class = 0>, fillcolor="#e89253"] ;
0 -> 20 [labeldistance=2.5, labelangle=-45, headlabel="False"] ;
21 [label=<T2 &le; 0.5<br/>entropy = 0.202<br/>samples = 95<br/>value = [92, 3]<br/>class = 0>, fillcolor="#e6853f"] ;
20 -> 21 ;
22 [label=<entropy = 0.0<br/>samples = 68<br/>value = [68, 0]<br/>class = 0>, fillcolor="#e58139"] ;
21 -> 22 ;
23 [label=<TIC type_B &le; 0.5<br/>entropy = 0.503<br/>samples = 27<br/>value = [24, 3]<br/>class = 0>, fillcolor="#e89152"] ;
21 -> 23 ;
24 [label=<ADC &le; 1.417<br/>entropy = 0.672<br/>samples = 17<br/>value = [14, 3]<br/>class = 0>, fillcolor="#eb9c63"] ;
23 -> 24 ;
25 [label=<Segni macro malignità &le; 0.5<br/>entropy = 0.918<br/>samples = 9<br/>value = [6, 3]<br/>class = 0>, fillcolor="#f2c09c"] ;
24 -> 25 ;
26 [label=<ADC &le; 1.025<br/>entropy = 0.985<br/>samples = 7<br/>value = [4, 3]<br/>class = 0>, fillcolor="#f8e0ce"] ;
25 -> 26 ;
27 [label=<entropy = 0.0<br/>samples = 2<br/>value = [0, 2]<br/>class = 1>, fillcolor="#399de5"] ;
26 -> 27 ;
28 [label=<eta &le; 55.0<br/>entropy = 0.722<br/>samples = 5<br/>value = [4, 1]<br/>class = 0>, fillcolor="#eca06a"] ;
26 -> 28 ;
29 [label=<entropy = 1.0<br/>samples = 2<br/>value = [1, 1]<br/>class = 0>, fillcolor="#ffffff"] ;
28 -> 29 ;
30 [label=<entropy = 0.0<br/>samples = 3<br/>value = [3, 0]<br/>class = 0>, fillcolor="#e58139"] ;
28 -> 30 ;
31 [label=<entropy = 0.0<br/>samples = 2<br/>value = [2, 0]<br/>class = 0>, fillcolor="#e58139"] ;
25 -> 31 ;
32 [label=<entropy = 0.0<br/>samples = 8<br/>value = [8, 0]<br/>class = 0>, fillcolor="#e58139"] ;
24 -> 32 ;
33 [label=<entropy = 0.0<br/>samples = 10<br/>value = [10, 0]<br/>class = 0>, fillcolor="#e58139"] ;
23 -> 33 ;
34 [label=<T2 &le; 0.5<br/>entropy = 0.901<br/>samples = 41<br/>value = [28, 13]<br/>class = 0>, fillcolor="#f1bc95"] ;
20 -> 34 ;
35 [label=<ADC &le; 1.183<br/>entropy = 0.391<br/>samples = 13<br/>value = [1, 12]<br/>class = 1>, fillcolor="#49a5e7"] ;
34 -> 35 ;
36 [label=<entropy = 1.0<br/>samples = 2<br/>value = [1, 1]<br/>class = 0>, fillcolor="#ffffff"] ;
35 -> 36 ;
37 [label=<entropy = 0.0<br/>samples = 11<br/>value = [0, 11]<br/>class = 1>, fillcolor="#399de5"] ;
35 -> 37 ;
38 [label=<ADC &le; 0.712<br/>entropy = 0.222<br/>samples = 28<br/>value = [27, 1]<br/>class = 0>, fillcolor="#e68640"] ;
34 -> 38 ;
39 [label=<TIC type_B &le; 0.5<br/>entropy = 0.811<br/>samples = 4<br/>value = [3, 1]<br/>class = 0>, fillcolor="#eeab7b"] ;
38 -> 39 ;
40 [label=<entropy = 0.0<br/>samples = 2<br/>value = [2, 0]<br/>class = 0>, fillcolor="#e58139"] ;
39 -> 40 ;
41 [label=<entropy = 1.0<br/>samples = 2<br/>value = [1, 1]<br/>class = 0>, fillcolor="#ffffff"] ;
39 -> 41 ;
42 [label=<entropy = 0.0<br/>samples = 24<br/>value = [24, 0]<br/>class = 0>, fillcolor="#e58139"] ;
38 -> 42 ;
}
